digraph Tree {
node [shape=box, style="filled, rounded", color="black", fontname=helvetica] ;
edge [fontname=helvetica] ;
0 [label=<0.1791010945719281 &le; 264.45<br/>entropy = 0.597<br/>samples = 3333<br/>value = [2850, 483]<br/>class = 0>, fillcolor="#e9965b"] ;
1 [label=<0.16297097643840358 &le; 3.5<br/>entropy = 0.512<br/>samples = 3122<br/>value = [2766, 356]<br/>class = 0>, fillcolor="#e89152"] ;
0 -> 1 [labeldistance=2.5, labelangle=45, headlabel="True"] ;
2 [label=<0.1443877323145461 &le; 0.5<br/>entropy = 0.401<br/>samples = 2871<br/>value = [2642, 229]<br/>class = 0>, fillcolor="#e78c4a"] ;
1 -> 2 ;
3 [label=<0.13667655292698888 &le; 37.95<br/>entropy = 0.283<br/>samples = 2604<br/>value = [2476, 128]<br/>class = 0>, fillcolor="#e68843"] ;
2 -> 3 ;
4 [label=<0.01742794816628866 &le; 5.845<br/>entropy = 0.179<br/>samples = 2221<br/>value = [2161, 60]<br/>class = 0>, fillcolor="#e6843e"] ;
3 -> 4 ;
5 [label=<entropy = 0.0<br/>samples = 171<br/>value = [171, 0]<br/>class = 0>, fillcolor="#e58139"] ;
4 -> 5 ;
6 [label=<entropy = 0.191<br/>samples = 2050<br/>value = [1990, 60]<br/>class = 0>, fillcolor="#e6853f"] ;
4 -> 6 ;
7 [label=<0.061487898386412804 &le; 242.35<br/>entropy = 0.675<br/>samples = 383<br/>value = [315, 68]<br/>class = 0>, fillcolor="#eb9c64"] ;
3 -> 7 ;
8 [label=<entropy = 0.382<br/>samples = 296<br/>value = [274, 22]<br/>class = 0>, fillcolor="#e78b49"] ;
7 -> 8 ;
9 [label=<entropy = 0.998<br/>samples = 87<br/>value = [41, 46]<br/>class = 1>, fillcolor="#e9f4fc"] ;
7 -> 9 ;
10 [label=<0.07256627982789386 &le; 2.5<br/>entropy = 0.957<br/>samples = 267<br/>value = [166, 101]<br/>class = 0>, fillcolor="#f5ceb1"] ;
2 -> 10 ;
11 [label=<entropy = 0.0<br/>samples = 51<br/>value = [0, 51]<br/>class = 1>, fillcolor="#399de5"] ;
10 -> 11 ;
12 [label=<0.10785114064878812 &le; 13.1<br/>entropy = 0.781<br/>samples = 216<br/>value = [166, 50]<br/>class = 0>, fillcolor="#eda775"] ;
10 -> 12 ;
13 [label=<entropy = 0.244<br/>samples = 173<br/>value = [166, 7]<br/>class = 0>, fillcolor="#e68641"] ;
12 -> 13 ;
14 [label=<entropy = 0.0<br/>samples = 43<br/>value = [0, 43]<br/>class = 1>, fillcolor="#399de5"] ;
12 -> 14 ;
15 [label=<0.13667655292698888 &le; 27.235<br/>entropy = 1.0<br/>samples = 251<br/>value = [124, 127]<br/>class = 1>, fillcolor="#fafdfe"] ;
1 -> 15 ;
16 [label=<0.061487898386412804 &le; 233.3<br/>entropy = 0.55<br/>samples = 102<br/>value = [13, 89]<br/>class = 1>, fillcolor="#56abe9"] ;
15 -> 16 ;
17 [label=<0.01503259763951538 &le; 255.35<br/>entropy = 0.233<br/>samples = 79<br/>value = [3, 76]<br/>class = 1>, fillcolor="#41a1e6"] ;
16 -> 17 ;
18 [label=<entropy = 0.0<br/>samples = 70<br/>value = [0, 70]<br/>class = 1>, fillcolor="#399de5"] ;
17 -> 18 ;
19 [label=<entropy = 0.918<br/>samples = 9<br/>value = [3, 6]<br/>class = 1>, fillcolor="#9ccef2"] ;
17 -> 19 ;
20 [label=<0.1791010945719281 &le; 120.5<br/>entropy = 0.988<br/>samples = 23<br/>value = [10, 13]<br/>class = 1>, fillcolor="#d1e8f9"] ;
16 -> 20 ;
21 [label=<entropy = 0.0<br/>samples = 10<br/>value = [0, 10]<br/>class = 1>, fillcolor="#399de5"] ;
20 -> 21 ;
22 [label=<entropy = 0.779<br/>samples = 13<br/>value = [10, 3]<br/>class = 0>, fillcolor="#eda774"] ;
20 -> 22 ;
23 [label=<0.054534890712287176 &le; 12.05<br/>entropy = 0.819<br/>samples = 149<br/>value = [111, 38]<br/>class = 0>, fillcolor="#eeac7d"] ;
15 -> 23 ;
24 [label=<0.1791010945719281 &le; 195.5<br/>entropy = 0.831<br/>samples = 19<br/>value = [5, 14]<br/>class = 1>, fillcolor="#80c0ee"] ;
23 -> 24 ;
25 [label=<entropy = 0.0<br/>samples = 8<br/>value = [0, 8]<br/>class = 1>, fillcolor="#399de5"] ;
24 -> 25 ;
26 [label=<entropy = 0.994<br/>samples = 11<br/>value = [5, 6]<br/>class = 1>, fillcolor="#deeffb"] ;
24 -> 26 ;
27 [label=<0.1791010945719281 &le; 175.75<br/>entropy = 0.69<br/>samples = 130<br/>value = [106, 24]<br/>class = 0>, fillcolor="#eb9e66"] ;
23 -> 27 ;
28 [label=<entropy = 0.977<br/>samples = 34<br/>value = [20, 14]<br/>class = 0>, fillcolor="#f7d9c4"] ;
27 -> 28 ;
29 [label=<entropy = 0.482<br/>samples = 96<br/>value = [86, 10]<br/>class = 0>, fillcolor="#e89050"] ;
27 -> 29 ;
30 [label=<0.04474835477187657 &le; 0.5<br/>entropy = 0.97<br/>samples = 211<br/>value = [84, 127]<br/>class = 1>, fillcolor="#bcdef6"] ;
0 -> 30 [labeldistance=2.5, labelangle=-45, headlabel="False"] ;
31 [label=<0.054534890712287176 &le; 15.96<br/>entropy = 0.785<br/>samples = 158<br/>value = [37, 121]<br/>class = 1>, fillcolor="#76bbed"] ;
30 -> 31 ;
32 [label=<0.13667655292698888 &le; 47.21<br/>entropy = 0.989<br/>samples = 57<br/>value = [32, 25]<br/>class = 0>, fillcolor="#f9e3d4"] ;
31 -> 32 ;
33 [label=<0.01503259763951538 &le; 225.7<br/>entropy = 0.634<br/>samples = 25<br/>value = [21, 4]<br/>class = 0>, fillcolor="#ea995f"] ;
32 -> 33 ;
34 [label=<entropy = 0.0<br/>samples = 17<br/>value = [17, 0]<br/>class = 0>, fillcolor="#e58139"] ;
33 -> 34 ;
35 [label=<entropy = 1.0<br/>samples = 8<br/>value = [4, 4]<br/>class = 0>, fillcolor="#ffffff"] ;
33 -> 35 ;
36 [label=<0.054534890712287176 &le; 12.27<br/>entropy = 0.928<br/>samples = 32<br/>value = [11, 21]<br/>class = 1>, fillcolor="#a1d0f3"] ;
32 -> 36 ;
37 [label=<entropy = 0.544<br/>samples = 8<br/>value = [7, 1]<br/>class = 0>, fillcolor="#e99355"] ;
36 -> 37 ;
38 [label=<entropy = 0.65<br/>samples = 24<br/>value = [4, 20]<br/>class = 1>, fillcolor="#61b1ea"] ;
36 -> 38 ;
39 [label=<0.01742794816628866 &le; 5.715<br/>entropy = 0.284<br/>samples = 101<br/>value = [5, 96]<br/>class = 1>, fillcolor="#43a2e6"] ;
31 -> 39 ;
40 [label=<entropy = 0.985<br/>samples = 7<br/>value = [4, 3]<br/>class = 0>, fillcolor="#f8e0ce"] ;
39 -> 40 ;
41 [label=<0.003214533595070827 &le; 68.0<br/>entropy = 0.085<br/>samples = 94<br/>value = [1, 93]<br/>class = 1>, fillcolor="#3b9ee5"] ;
39 -> 41 ;
42 [label=<entropy = 0.592<br/>samples = 7<br/>value = [1, 6]<br/>class = 1>, fillcolor="#5aade9"] ;
41 -> 42 ;
43 [label=<entropy = 0.0<br/>samples = 87<br/>value = [0, 87]<br/>class = 1>, fillcolor="#399de5"] ;
41 -> 43 ;
44 [label=<0.1443877323145461 &le; 0.5<br/>entropy = 0.51<br/>samples = 53<br/>value = [47, 6]<br/>class = 0>, fillcolor="#e89152"] ;
30 -> 44 ;
45 [label=<0.10785114064878812 &le; 7.9<br/>entropy = 0.154<br/>samples = 45<br/>value = [44, 1]<br/>class = 0>, fillcolor="#e6843d"] ;
44 -> 45 ;
46 [label=<entropy = 0.592<br/>samples = 7<br/>value = [6, 1]<br/>class = 0>, fillcolor="#e9965a"] ;
45 -> 46 ;
47 [label=<entropy = 0.0<br/>samples = 38<br/>value = [38, 0]<br/>class = 0>, fillcolor="#e58139"] ;
45 -> 47 ;
48 [label=<entropy = 0.954<br/>samples = 8<br/>value = [3, 5]<br/>class = 1>, fillcolor="#b0d8f5"] ;
44 -> 48 ;
}